{
  "classes": [
    "healthy",
    "ill",
    "lame",
    "oestrus"
  ],
  "features": [
    "speedZ",
    "walkZ",
    "rumZ",
    "tempZ",
    "distZ",
    "dSpeedZ",
    "dWalkZ",
    "dRumZ"
  ],
  "weights": [
    [
      0.8837152788171377,
      -0.5447553493235799,
      0.20727093281699446,
      -3.599666462223021,
      -0.1433142950374603,
      -0.10901495377309292,
      0.06998433501669192,
      -0.029166829839869915
    ],
    [
      -0.3332088211632844,
      0.06671271704118537,
      -0.39642358651053106,
      2.1077819218521694,
      0.1655438797884669,
      0.04167994173860893,
      0.20375149700863088,
      0.056880063451672395
    ],
    [
      -2.6390375784939084,
      0.6697777267775898,
      -0.4194069165896952,
      -0.021726344716512323,
      0.20533086158232808,
      0.16501952170289563,
      0.6276863440430404,
      -0.1399944794045812
    ],
    [
      2.0885311208400554,
      -0.19173509449519544,
      0.6085595702832317,
      1.513610885087366,
      -0.2275604463333339,
      -0.09768450966841143,
      -0.901422176068364,
      0.11228124579277865
    ]
  ],
  "bias": [
    4.408072574603132,
    -2.862648000561937,
    -0.7579155196753267,
    -0.787509054365874
  ],
  "trainedAt": "2026-07-09T19:20:40.334Z",
  "trainRows": 8140,
  "testRows": 2036,
  "recall": [
    0.9866429207479964,
    1,
    0.8012618296529969,
    0.9269102990033222
  ]
}