{
  "classes": [
    "healthy",
    "ill",
    "lame",
    "oestrus"
  ],
  "features": [
    "speedZ",
    "walkZ",
    "rumZ",
    "tempZ",
    "distZ",
    "dSpeedZ",
    "dWalkZ",
    "dRumZ"
  ],
  "weights": [
    [
      0.8705346107355308,
      -0.6100087146211505,
      0.31947865752902344,
      -3.5890168221943797,
      -0.08498910732069871,
      -0.07727211560845257,
      0.06386146437378667,
      -0.06926939171694141
    ],
    [
      -0.44809213525175334,
      0.07976296502442343,
      -0.2412807991556404,
      2.079027082892919,
      0.18774143013167546,
      0.09757163570183312,
      0.26121139154006323,
      -0.041923323363673805
    ],
    [
      -2.50816335893803,
      0.6250906363658052,
      -0.3809357827112126,
      0.002977168632231168,
      0.1023634337810584,
      0.05052992285343008,
      0.65497674511366,
      -0.1662459794756666
    ],
    [
      2.0857208834542487,
      -0.09484488676907736,
      0.30273792433782887,
      1.5070125706692232,
      -0.20511575659203468,
      -0.07082944294681014,
      -0.9800496010275092,
      0.2774386945562817
    ]
  ],
  "bias": [
    4.445073758728751,
    -2.8525322504312443,
    -0.6456070852504541,
    -0.9469344230470592
  ],
  "trainedAt": "2026-07-09T18:58:55.697Z",
  "trainRows": 8140,
  "testRows": 2036
}