{
  "classes": [
    "healthy",
    "ill",
    "lame",
    "oestrus"
  ],
  "features": [
    "speedZ",
    "walkZ",
    "rumZ",
    "tempZ",
    "distZ",
    "dSpeedZ",
    "dWalkZ",
    "dRumZ",
    "strengthZ",
    "dStrengthZ"
  ],
  "weights": [
    [
      0.9246127914273333,
      -0.689197396940203,
      0.11284960226493382,
      -3.631425498064088,
      0.06550123151862378,
      -0.0004093704885065819,
      0.1503824742782687,
      0.14578174706508001,
      0.08461846969585787,
      0.19108057740091272
    ],
    [
      -0.30887804266947766,
      0.025206308927773254,
      -0.30810049262619865,
      2.0319763565292246,
      0.1764681432724503,
      0.02249299803721871,
      0.19971081483740474,
      -0.029213868579066556,
      0.08934679687836204,
      -0.2857480147283179
    ],
    [
      -2.483692496536043,
      0.8178142278701541,
      -0.11136843685682765,
      0.020710302953635917,
      -0.06763125155381541,
      -0.12822690120066318,
      0.5278461496380331,
      -0.37623773649038994,
      0.04841216385573036,
      -0.35412662848644755
    ],
    [
      1.8679577477781872,
      -0.15382313985772328,
      0.3066193272180921,
      1.5787388385812327,
      -0.17433812323725908,
      0.10614327365195018,
      -0.8779394387537077,
      0.2596698580043767,
      -0.22237743042994995,
      0.44879406581385195
    ]
  ],
  "bias": [
    4.458470196365121,
    -2.795240135639509,
    -0.8166683750149952,
    -0.8465616857106081
  ],
  "trainedAt": "2026-07-09T20:05:52.452Z",
  "trainRows": 8140,
  "testRows": 2036,
  "recall": [
    0.9865470852017937,
    1,
    0.8203389830508474,
    0.9451219512195121
  ]
}